digraph Tree {
node [shape=box, style="filled, rounded", color="black", fontname="helvetica"] ;
edge [fontname="helvetica"] ;
0 [label="cloudcover <= 88.1\nfriedman_mse = 75075.448\nsamples = 648\nvalue = 7.013", fillcolor="#f4c7a8"] ;
1 [label="hour_17 <= 0.5\nfriedman_mse = 89053.599\nsamples = 319\nvalue = 113.432", fillcolor="#f0b58b"] ;
0 -> 1 [labeldistance=2.5, labelangle=45, headlabel="True"] ;
2 [label="month_3 <= 0.5\nfriedman_mse = 78781.08\nsamples = 288\nvalue = 156.731", fillcolor="#eeae7f"] ;
1 -> 2 ;
3 [label="has_solarradiation <= 0.5\nfriedman_mse = 60874.637\nsamples = 190\nvalue = 67.594", fillcolor="#f1bd97"] ;
2 -> 3 ;
4 [label="friedman_mse = 15051.884\nsamples = 33\nvalue = -245.957", fillcolor="#fdf3ec"] ;
3 -> 4 ;
5 [label="humidity <= 73.72\nfriedman_mse = 45497.89\nsamples = 157\nvalue = 133.5", fillcolor="#efb285"] ;
3 -> 5 ;
6 [label="sealevelpressure <= 1020.7\nfriedman_mse = 44431.682\nsamples = 120\nvalue = 178.131", fillcolor="#edaa79"] ;
5 -> 6 ;
7 [label="temp <= 11.65\nfriedman_mse = 39613.777\nsamples = 69\nvalue = 123.893", fillcolor="#efb388"] ;
6 -> 7 ;
8 [label="friedman_mse = 28062.21\nsamples = 32\nvalue = 48.495", fillcolor="#f2c09c"] ;
7 -> 8 ;
9 [label="friedman_mse = 40435.439\nsamples = 37\nvalue = 189.102", fillcolor="#eda876"] ;
7 -> 9 ;
10 [label="friedman_mse = 41585.484\nsamples = 51\nvalue = 251.51", fillcolor="#eb9d65"] ;
6 -> 10 ;
11 [label="friedman_mse = 21543.433\nsamples = 37\nvalue = -11.249", fillcolor="#f4cbad"] ;
5 -> 11 ;
12 [label="cloudcover <= 49.1\nfriedman_mse = 68227.611\nsamples = 98\nvalue = 329.548", fillcolor="#e89050"] ;
2 -> 12 ;
13 [label="friedman_mse = 62476.495\nsamples = 47\nvalue = 414.397", fillcolor="#e58139"] ;
12 -> 13 ;
14 [label="friedman_mse = 60778.533\nsamples = 51\nvalue = 251.354", fillcolor="#eb9d65"] ;
12 -> 14 ;
15 [label="friedman_mse = 5255.792\nsamples = 31\nvalue = -288.83", fillcolor="#fefaf8"] ;
1 -> 15 ;
16 [label="month_3 <= 0.5\nfriedman_mse = 39894.42\nsamples = 329\nvalue = -96.171", fillcolor="#f7d9c4"] ;
0 -> 16 [labeldistance=2.5, labelangle=-45, headlabel="False"] ;
17 [label="has_solarradiation <= 0.5\nfriedman_mse = 28720.89\nsamples = 215\nvalue = -144.151", fillcolor="#f9e1d1"] ;
16 -> 17 ;
18 [label="month_2 <= 0.5\nfriedman_mse = 9582.478\nsamples = 83\nvalue = -275.026", fillcolor="#fef8f4"] ;
17 -> 18 ;
19 [label="friedman_mse = 2884.531\nsamples = 48\nvalue = -315.015", fillcolor="#ffffff"] ;
18 -> 19 ;
20 [label="friedman_mse = 13567.319\nsamples = 35\nvalue = -220.183", fillcolor="#fcefe5"] ;
18 -> 20 ;
21 [label="humidity <= 85.16\nfriedman_mse = 23212.793\nsamples = 132\nvalue = -61.858", fillcolor="#f6d3ba"] ;
17 -> 21 ;
22 [label="windgust <= 20.15\nfriedman_mse = 25248.483\nsamples = 93\nvalue = -30.519", fillcolor="#f5ceb2"] ;
21 -> 22 ;
23 [label="friedman_mse = 20450.32\nsamples = 54\nvalue = -61.707", fillcolor="#f6d3ba"] ;
22 -> 23 ;
24 [label="friedman_mse = 28680.327\nsamples = 39\nvalue = 12.666", fillcolor="#f3c6a6"] ;
22 -> 24 ;
25 [label="friedman_mse = 10431.429\nsamples = 39\nvalue = -136.591", fillcolor="#f9e0cf"] ;
21 -> 25 ;
26 [label="humidity <= 70.835\nfriedman_mse = 48437.654\nsamples = 114\nvalue = -5.683", fillcolor="#f4caab"] ;
16 -> 26 ;
27 [label="friedman_mse = 68045.314\nsamples = 35\nvalue = 112.589", fillcolor="#f0b58b"] ;
26 -> 27 ;
28 [label="humidity <= 87.235\nfriedman_mse = 30807.74\nsamples = 79\nvalue = -58.082", fillcolor="#f6d3b9"] ;
26 -> 28 ;
29 [label="friedman_mse = 37091.233\nsamples = 46\nvalue = -20.781", fillcolor="#f5ccaf"] ;
28 -> 29 ;
30 [label="friedman_mse = 17405.859\nsamples = 33\nvalue = -110.078", fillcolor="#f8dcc7"] ;
28 -> 30 ;
}